57 50
*dt_0 0.007546 -0.004494 0.005574 0.008275 0.004543 0.004062 0.007996 0.004033 -0.005308 0.007954 0.006824 0.000851 -0.002024 -0.009411 0.007773 0.003538 -0.008621 -0.001762 0.000437 -0.004038 -0.006760 -0.002587 -0.010371 0.006428 0.008988 0.008994 -0.002110 -0.010452 0.002472 0.002342 0.002352 -0.004845 0.000886 -0.003755 0.000932 0.003561 0.004031 0.004275 -0.007665 0.005206 0.010465 0.005977 0.007805 -0.002028 -0.003316 -0.003096 0.000448 0.000571 -0.001733 0.000314
*dt_1 0.006961 0.006626 0.005088 -0.003780 0.003563 0.003923 0.003508 -0.005756 -0.007628 -0.006059 -0.004999 -0.007726 -0.008993 0.001296 0.008133 0.002556 0.008278 -0.002722 -0.004143 0.005284 -0.005721 0.005949 0.001891 -0.005877 0.002104 -0.008011 -0.006361 -0.007572 0.000014 -0.002118 -0.009042 -0.002991 0.011317 0.002887 -0.009897 0.007701 0.008624 -0.009088 0.004922 0.004020 0.004982 -0.001462 0.002877 -0.003847 -0.001783 0.004345 -0.001211 0.009241 0.004975 -0.003631
*dt_2 -0.005726 0.008072 -0.005382 0.009972 0.007885 0.000117 0.005444 -0.008664 0.002017 0.000862 0.007931 -0.000126 0.005934 -0.002002 0.009171 0.001391 -0.003601 0.006125 0.001278 -0.006614 0.009861 -0.006628 0.005292 0.007235 0.003164 0.008273 0.004927 -0.008834 0.009148 -0.006206 -0.009499 0.007895 -0.000813 0.004910 -0.007984 0.005182 0.009067 -0.005998 0.000999 0.005409 0.008103 0.009779 0.002992 -0.001640 -0.006029 -0.002248 -0.008491 0.007923 -0.007463 0.005603
*dt_3 0.003195 -0.003137 0.010038 0.007499 0.003661 -0.008007 -0.007435 -0.006754 -0.000762 0.008768 -0.007229 0.010224 0.002794 -0.003428 0.004684 0.003087 0.000193 -0.001522 -0.008545 0.008187 -0.009216 0.001672 -0.002981 0.009902 0.005729 0.004820 -0.002694 -0.010144 0.003268 -0.004373 -0.007063 0.008826 -0.004088 0.002045 -0.000402 -0.006881 -0.005249 0.009541 -0.009223 0.009545 0.006347 -0.006530 -0.002452 0.007520 0.008977 0.007982 0.008709 0.003762 -0.005107 0.008752
*dt_4 0.006120 -0.005366 -0.002485 -0.007299 -0.011385 0.003663 0.009209 0.000627 0.005626 0.004849 0.000663 0.010975 0.002455 -0.001637 0.003774 0.009484 0.004860 -0.004591 -0.005563 0.004961 0.000914 -0.001824 0.005972 -0.006316 -0.008146 -0.000788 0.011046 -0.000892 -0.006104 -0.004056 -0.009127 0.005001 0.008753 0.001235 -0.005088 -0.007312 -0.008114 -0.001506 0.003314 -0.000251 0.001344 -0.001331 -0.001447 -0.001767 -0.003845 0.006376 -0.002386 0.004095 -0.009631 -0.001520
*dt_5 0.001753 -0.008468 -0.006993 -0.010054 -0.006178 0.003360 0.000458 -0.005032 -0.009299 -0.006814 -0.000304 -0.000904 -0.010129 -0.010077 -0.002568 -0.002530 0.005435 0.008408 -0.004646 0.008332 0.006339 0.001627 -0.009390 -0.008630 0.010240 -0.005407 0.008019 -0.008055 -0.003152 -0.003915 -0.006982 -0.006402 -0.004469 -0.006396 -0.000322 0.000504 0.005943 -0.001657 -0.004120 0.003033 -0.005458 -0.002743 0.005860 0.004372 0.008733 0.000985 -0.006577 0.004188 0.003516 -0.010129
*dt_6 -0.009420 -0.000001 0.005141 -0.000631 -0.010984 -0.001701 -0.003651 -0.001455 0.003693 -0.008017 0.005420 -0.001258 -0.010015 -0.008647 0.010155 0.006138 0.008915 -0.008285 0.003524 0.003661 0.003045 -0.006409 -0.001250 -0.007907 -0.001665 0.004073 -0.009122 -0.001094 0.007170 0.010426 -0.003599 -0.000890 0.011771 -0.000236 0.005485 -0.006740 -0.006427 -0.000492 -0.001387 0.007305 0.011066 -0.001992 -0.002317 -0.006497 -0.002131 0.004024 0.002940 0.001505 -0.000120 0.003357
*dt_7 0.008572 -0.001997 -0.007657 -0.008413 0.005393 -0.011278 0.006025 -0.009298 0.002013 0.007629 0.001593 0.003734 -0.005557 0.008118 0.008349 0.010778 -0.009082 0.006447 -0.006533 0.008498 0.002016 0.005225 0.006686 0.010860 -0.007632 -0.001589 -0.008084 -0.002195 -0.003070 0.005536 -0.001537 0.007438 -0.002115 0.002127 0.003966 -0.003282 0.006172 -0.003263 -0.005837 0.000411 -0.000390 0.008967 -0.001394 -0.003675 -0.005036 0.002885 0.008795 0.012778 0.008743 -0.007347
*dt_8 0.007123 -0.007898 -0.008146 0.008447 0.005179 0.004194 -0.001707 -0.010159 -0.003239 0.006602 0.005267 0.000812 -0.007553 0.008471 -0.006387 -0.002152 -0.008167 0.010630 0.006770 0.004752 0.006720 -0.004135 -0.001984 0.009267 -0.002713 -0.002850 0.000660 0.004286 -0.006846 0.000542 -0.010039 -0.004210 0.004367 -0.004735 -0.007232 0.006424 0.008746 0.001994 0.008861 -0.003269 0.009978 -0.001091 0.005462 0.006575 0.009072 0.006773 0.006767 -0.001544 -0.003682 -0.007562
*dt_9 0.003495 0.003930 0.004324 -0.007464 -0.007536 -0.002463 0.007547 0.000788 0.001403 -0.003300 0.005619 -0.008489 -0.005380 -0.002922 0.005693 -0.007196 0.009348 -0.000993 -0.004728 -0.007860 -0.004041 -0.004153 -0.006560 0.006508 0.003667 0.006108 0.000818 0.000075 -0.004186 -0.005191 0.005631 0.005541 0.010372 0.008677 0.009416 0.009056 -0.001625 -0.009705 -0.009178 -0.005983 -0.002031 0.003789 0.001344 -0.002940 -0.003737 0.001137 -0.006124 0.000118 -0.004169 -0.005385
*dt_10 -0.004551 0.000159 -0.002403 0.004967 0.003170 0.004671 -0.000288 0.001858 -0.007459 0.005468 -0.002530 0.007849 -0.002312 0.000277 -0.008298 -0.000181 -0.004455 0.006577 0.009253 -0.007716 0.010225 0.000424 0.006492 -0.001719 0.006708 -0.000807 0.007695 -0.008114 -0.004647 0.009253 0.006380 -0.005690 0.006165 -0.009471 -0.009977 0.005630 0.002090 -0.005771 0.009078 -0.003877 0.004039 -0.006942 0.000874 -0.004725 0.003088 -0.001952 0.005359 -0.007287 -0.003320 -0.006391
*dt_11 -0.001385 0.009667 -0.002091 0.008441 -0.010139 0.009399 0.004278 -0.005196 -0.003520 -0.001055 0.004266 -0.000524 -0.007163 0.009385 0.010483 -0.008379 -0.008457 -0.003163 -0.009023 -0.006888 0.007347 -0.006599 0.005936 0.010991 -0.004877 0.001252 0.006974 0.003420 0.007716 0.011090 -0.002630 0.002835 0.000279 0.007264 -0.000175 0.004296 -0.004624 0.001496 -0.009798 0.010954 0.007135 -0.000293 0.001683 0.004829 0.005319 -0.007188 0.003639 -0.004836 0.001402 0.001620
*dt_12 -0.005567 0.000647 0.002577 -0.001630 -0.010928 -0.002171 0.003800 0.006086 -0.002407 0.005393 -0.007487 -0.001845 0.005374 0.006480 -0.000919 0.009345 -0.005389 0.009721 0.007888 -0.003984 -0.000595 0.000758 -0.004211 0.010217 0.003105 -0.008694 0.001393 -0.009374 -0.004572 -0.000386 0.000760 -0.002716 0.012673 0.003897 -0.004114 0.000151 -0.002169 0.005963 -0.008727 0.008548 0.005168 0.005922 0.006526 -0.010262 0.009748 0.010186 -0.000904 0.010292 -0.005606 -0.002559
*dt_13 -0.007743 -0.001496 0.010911 -0.006365 -0.002897 0.002219 -0.009165 -0.009382 0.004713 -0.003326 0.000763 0.008063 0.005152 -0.006668 -0.003200 0.006190 -0.003453 -0.003894 0.004610 -0.001901 0.008577 -0.008571 0.001787 -0.008356 0.002344 0.008690 0.006276 0.004072 0.001314 -0.007617 0.008373 0.008069 0.005077 -0.005949 -0.006491 -0.002247 0.000230 0.008280 0.008053 0.004058 -0.005709 -0.010513 0.007229 -0.010149 0.001676 -0.000307 0.002950 0.007040 0.008033 -0.006812
*dt_14 -0.008579 -0.005892 0.005599 -0.001282 0.001831 -0.004562 -0.000759 -0.004093 -0.003139 0.008549 -0.000435 0.009921 0.006225 -0.005109 -0.001756 -0.008295 -0.002867 0.011496 0.008100 -0.002035 -0.004138 0.002210 0.007081 -0.005899 -0.005713 0.003029 -0.003579 0.002896 -0.002466 0.003968 0.007427 0.008253 0.008091 0.004445 0.008371 0.011130 -0.006122 -0.006038 0.000558 -0.008054 0.009526 -0.008983 0.009283 -0.007461 -0.008123 0.007564 0.007310 -0.006076 -0.001330 -0.011758
*dt_15 0.001258 -0.008159 -0.001639 0.003309 0.002093 -0.006508 0.003939 -0.003152 -0.010162 -0.003873 -0.006180 0.002604 0.008019 0.007851 0.007473 -0.006376 0.004508 -0.007993 0.005779 -0.001794 0.003109 -0.007947 -0.004072 0.002634 -0.004584 0.001906 -0.005012 -0.009655 -0.009548 0.001722 0.006531 -0.003801 0.004622 -0.009108 0.004824 0.008039 -0.008608 -0.001473 0.006629 -0.005106 0.000954 -0.005313 -0.003989 0.006499 -0.005732 0.000799 -0.005623 0.010389 0.002024 0.008335
*dt_16 0.007219 -0.002956 0.002660 0.002788 -0.007186 -0.007458 -0.000829 -0.011007 0.005624 -0.005556 -0.005668 0.000005 -0.008580 0.009225 0.011174 -0.002279 -0.003061 -0.003483 -0.002468 0.006498 0.001983 -0.000435 -0.010117 -0.009048 0.005089 0.000869 0.004072 0.002568 -0.001542 -0.002752 0.006779 0.009848 0.011904 -0.000741 0.002525 0.007004 0.010520 -0.001268 -0.002594 0.005711 -0.002888 -0.000524 -0.008683 0.009353 0.009286 0.004906 0.006433 -0.001312 -0.006610 -0.000049
*dt_17 0.003229 -0.004027 0.004436 -0.005872 0.002585 0.005534 0.007287 -0.009136 -0.000257 -0.008295 0.007900 0.002165 0.008607 -0.001059 -0.003936 0.006467 0.002836 0.000739 0.008349 0.003850 -0.003212 -0.007084 -0.006583 0.008979 -0.006264 0.007450 0.007034 0.004746 0.001940 0.000365 0.004275 -0.009790 -0.003170 0.001830 -0.003670 0.003857 -0.001728 -0.006242 -0.008922 -0.007227 -0.003303 -0.008295 0.009077 -0.006197 -0.003787 0.008063 -0.006116 -0.000308 -0.006385 -0.007079
*dt_18 -0.008684 0.008399 0.006149 -0.003760 -0.000684 -0.010876 0.007710 -0.009792 -0.004396 0.011522 -0.002509 0.001501 -0.008522 -0.000029 -0.002440 0.004833 0.006996 0.008544 0.002698 -0.001663 0.003285 -0.007875 0.002652 0.001254 -0.001752 0.003543 0.007859 -0.001376 0.003515 -0.002316 -0.002345 -0.006832 0.007050 -0.005635 -0.010554 -0.003256 0.006769 -0.010720 -0.007614 -0.000667 -0.003595 0.002220 0.008814 0.006418 0.004491 0.008495 -0.004336 0.010414 0.008768 -0.005611
*dt_19 0.007582 0.007711 -0.006447 -0.001887 0.004897 -0.008053 0.003050 -0.007810 -0.004982 0.006851 -0.003876 0.008564 -0.008352 -0.002615 0.008057 -0.002427 0.004578 0.003588 0.001553 0.007913 -0.003293 -0.000204 0.009731 0.003184 0.003068 -0.005004 0.010249 -0.001508 0.009474 0.006853 -0.000870 0.001531 0.011838 -0.001680 -0.008506 -0.007679 0.006378 -0.005640 0.001930 -0.007533 0.005403 0.006320 -0.010245 0.001568 0.000963 0.005021 -0.006982 0.007975 0.007751 -0.003492
*dt_20 -0.005951 -0.009679 0.005554 0.002012 -0.001465 0.005886 0.000831 0.000020 0.000299 0.006774 0.009878 -0.004426 -0.000305 0.007993 -0.003467 -0.001960 0.009863 0.003042 -0.005577 -0.001247 -0.009716 -0.009653 -0.002144 -0.007388 0.003533 0.000179 0.004417 -0.009219 0.002058 -0.008928 0.006588 0.008816 -0.004307 -0.003745 -0.008003 -0.001344 0.002863 -0.009813 -0.009293 0.007295 -0.004541 0.003026 0.005728 -0.009675 0.004225 0.000142 0.008979 0.003120 0.005175 0.005052
*dt_21 0.006210 -0.000385 0.001496 0.007498 0.004643 0.001491 -0.000179 0.001283 -0.001746 -0.000385 0.006790 0.007394 -0.007382 -0.005204 -0.003767 0.005602 0.009917 0.000461 0.002963 0.000505 -0.006267 0.007459 0.002138 -0.001141 -0.005652 0.007283 -0.003898 0.006309 0.008377 0.003613 0.004064 -0.009168 0.012190 -0.000572 0.001698 0.008992 0.000521 0.001878 0.005073 -0.006234 0.006630 -0.001115 0.006022 -0.006039 0.001759 0.002244 0.007086 0.004378 0.000844 0.000517
*dt_22 -0.003309 -0.004961 -0.004761 -0.006157 -0.007032 -0.006882 0.004043 0.007440 -0.007689 0.008693 -0.008071 -0.004129 -0.005670 -0.006107 0.007553 -0.005654 -0.009048 0.009202 0.010273 -0.009744 -0.002528 -0.002312 0.004155 0.003791 -0.002388 -0.009805 0.005552 0.003601 0.000745 0.010144 -0.006995 0.003919 0.009400 0.005007 -0.004689 -0.001069 0.001179 0.006399 -0.007274 0.007541 0.008319 0.007684 -0.003391 0.002629 0.000983 -0.006126 -0.000476 0.009292 -0.010301 -0.006901
*dt_23 -0.010070 -0.003644 0.007819 0.005143 -0.007057 0.008893 0.001995 -0.008202 -0.003346 -0.000861 0.008719 0.010492 0.008972 0.008133 0.002927 0.007348 -0.006790 -0.004942 0.003536 -0.001197 0.005448 -0.001643 -0.006532 -0.009350 -0.007398 -0.001538 0.000407 0.002525 0.000965 0.006737 -0.007994 0.005696 0.007942 0.001615 0.003462 0.007913 -0.003659 0.000872 0.007102 -0.006633 -0.002824 0.009450 -0.005397 0.003288 -0.001102 -0.004261 0.007937 -0.005585 -0.004622 0.004936
*dt_24 0.001069 0.005065 -0.006002 -0.000751 -0.008877 -0.005672 0.004961 0.004124 0.003875 0.000191 0.005207 0.008723 0.003125 -0.003436 0.001587 0.005365 0.003905 0.009866 -0.006563 -0.005788 0.003842 0.008401 -0.002077 -0.004254 0.007482 0.002392 -0.005821 0.008932 0.009531 -0.003605 -0.001236 -0.009864 0.004395 0.002633 -0.009049 0.008369 -0.004916 0.003749 0.002017 0.003234 0.009224 0.008151 -0.005155 0.002380 0.000278 0.004333 0.007017 -0.005928 -0.005448 -0.000606
*dt_25 0.008568 0.001136 0.004095 -0.000064 0.001165 -0.010196 -0.004400 0.004041 0.003319 0.010680 0.001849 -0.003138 0.005520 -0.001166 -0.000994 0.008249 0.005452 -0.007969 0.005114 -0.001444 0.009694 0.005098 0.008849 0.007461 0.003745 -0.003695 0.007139 0.000614 0.004604 0.001234 0.009136 -0.004627 -0.007427 0.008810 0.004540 -0.002476 0.007185 0.000286 0.002645 0.007843 0.000029 -0.005367 -0.007638 0.004962 0.005626 -0.005587 -0.001192 -0.005740 -0.001383 -0.004754
*dt_26 0.002873 0.009020 0.008397 0.005071 -0.008869 -0.004237 0.002521 0.005611 -0.008478 -0.002768 -0.008883 -0.000835 -0.004308 -0.010173 -0.005404 0.008335 -0.002964 0.000308 0.008793 0.003408 0.002885 0.008432 -0.004176 0.002822 0.005864 0.001167 0.004480 -0.009937 -0.003128 0.001604 -0.007911 0.001074 0.012015 0.005433 -0.005524 0.007321 -0.009054 -0.006682 0.009711 0.010599 -0.007955 0.000982 0.004103 -0.003174 -0.007132 0.006693 -0.004604 0.007366 0.003373 0.004879
*dt_27 -0.006189 0.005677 -0.000043 0.007048 0.004534 0.003958 0.005599 0.003550 0.005672 0.005469 0.000030 0.001895 -0.005725 0.006175 0.004866 -0.001879 0.000783 0.009663 -0.003542 -0.006635 -0.003848 -0.009189 0.004954 -0.001013 0.006462 0.000800 -0.002400 -0.001182 -0.002660 0.001317 0.004618 0.000961 0.004972 0.003033 -0.005864 0.010500 0.004599 0.004085 -0.000553 -0.000822 0.005459 0.001129 -0.005704 -0.008915 -0.008931 -0.002134 0.001376 0.011385 0.005758 -0.002242
*dt_28 0.003764 -0.006469 0.006399 -0.004018 -0.003268 0.004268 -0.003473 0.000789 0.001171 0.000473 -0.003554 0.003600 0.007940 -0.001971 0.006161 0.009789 0.004094 0.007865 -0.005339 0.000189 0.009510 -0.007755 0.006215 -0.009179 0.002669 0.004911 -0.005499 0.005855 0.005147 -0.007180 0.001324 -0.003040 0.003321 0.004037 0.003776 0.009292 0.002034 -0.009218 -0.000017 -0.001608 -0.006917 0.009173 -0.007778 0.009376 0.001499 0.009156 -0.003180 0.009742 0.006066 0.006536
*dt_29 0.000483 0.010151 0.006857 -0.002416 -0.000063 -0.002542 -0.007031 -0.009458 -0.000705 -0.004932 -0.008261 0.004529 -0.000347 -0.000478 0.006618 0.007202 -0.002476 0.000026 0.000139 -0.002848 0.006618 0.003603 0.007128 -0.007752 -0.005086 0.005871 0.005941 0.006654 0.005122 -0.005887 0.004425 -0.006981 0.000896 0.006921 -0.009733 -0.000554 0.009366 0.001066 0.005392 0.007095 -0.009118 -0.000051 0.005660 0.006053 -0.002436 0.000131 -0.006933 0.002332 -0.006125 -0.004924
*dt_30 0.004039 -0.004420 0.009250 0.004422 0.006231 -0.009927 -0.002871 -0.009702 -0.000452 -0.009530 -0.001552 -0.002392 -0.004909 -0.006721 -0.000053 -0.006023 0.002120 -0.003037 0.002106 -0.006653 0.001914 -0.004020 0.006149 0.003957 -0.002390 0.001751 -0.002092 -0.006129 -0.009349 -0.006395 0.002644 0.008246 0.001995 -0.003868 -0.000403 0.000965 0.001627 0.005303 0.003805 -0.006096 0.005381 0.000724 -0.007333 0.007237 -0.006623 0.008040 -0.003465 -0.000053 0.007205 0.007271
*dt_31 0.002911 -0.000561 -0.000319 -0.006561 -0.001767 0.004481 0.009429 -0.010394 0.000402 -0.001034 0.003214 -0.001770 0.000398 -0.009378 -0.008877 0.009172 -0.002377 0.000122 0.006354 0.009358 -0.003857 0.002155 -0.003414 -0.001953 -0.008598 0.009806 0.005984 -0.010010 -0.009428 -0.008574 -0.005195 -0.008147 0.009266 0.003840 -0.007549 0.010379 -0.002673 -0.003985 0.000827 -0.008463 0.009282 -0.000242 -0.005488 0.005503 0.006432 0.007166 -0.006039 -0.005927 -0.001529 -0.006131
*dt_32 -0.006802 -0.004706 -0.009376 0.006493 -0.010488 -0.007149 -0.000809 -0.003317 -0.004994 0.004739 -0.009598 0.001244 -0.009670 0.008273 0.009579 0.004716 -0.009351 0.003616 -0.007648 0.009326 -0.007428 -0.006649 -0.003284 0.007350 -0.003098 0.000214 0.000622 -0.008658 0.010045 0.000302 -0.001434 -0.008910 0.003715 0.003117 0.009103 0.006778 -0.005716 -0.009285 0.005269 0.000337 -0.003557 -0.000200 0.003446 0.001437 0.005299 -0.007813 0.006776 -0.001203 0.002358 -0.004117
*dt_33 -0.000403 -0.003002 -0.004620 0.000128 0.006400 -0.002733 0.004277 0.001309 0.001952 0.001906 -0.008733 0.003539 -0.006648 0.002343 -0.002709 0.005564 0.001270 0.006633 0.009476 -0.004301 0.003290 -0.002598 0.008699 0.006048 0.009456 0.009860 0.002286 0.005202 0.007691 0.005115 -0.010035 -0.001173 0.011059 -0.002411 -0.002891 0.011076 0.007323 -0.008782 -0.003076 0.006499 0.010628 0.007328 0.000050 0.004783 -0.002761 -0.009632 0.010155 -0.002579 -0.009994 -0.000383
*dt_34 -0.002785 0.007269 0.005781 -0.000716 -0.001650 -0.002825 -0.001788 0.009209 0.006768 -0.005736 -0.003487 0.001223 -0.007977 0.009202 0.007629 -0.009185 -0.004803 0.003900 0.001352 0.009149 0.001147 -0.009965 0.003921 -0.003435 0.005964 -0.008759 0.010223 -0.000377 0.008455 0.010412 0.001103 0.008580 0.006737 0.005558 -0.001033 -0.007583 0.003020 0.006299 -0.000154 0.000542 -0.005081 -0.010002 -0.010079 0.006384 -0.002669 -0.005488 -0.004107 -0.002953 -0.006402 0.006834
*dt_35 -0.000863 -0.007742 0.007150 -0.002677 0.004192 -0.000403 0.008945 -0.008475 -0.004861 -0.001896 0.006584 0.001317 -0.008272 -0.000374 0.002711 0.009851 0.007551 0.001392 0.000959 0.008211 0.000507 -0.000509 -0.005936 0.000514 0.002572 0.005224 -0.004790 -0.003986 -0.002140 0.002369 -0.008002 -0.004555 0.011324 -0.003061 -0.008027 0.004315 0.006263 0.001224 0.004244 -0.008423 -0.001712 0.001625 0.002710 -0.004128 -0.003090 -0.002209 -0.009164 -0.009237 -0.007046 -0.010377
*dt_36 0.009725 0.007387 -0.001379 0.004910 -0.006518 0.005262 0.001751 0.008259 -0.003586 0.006699 0.009431 0.001847 0.002044 0.002801 -0.003865 0.005200 0.000910 -0.002957 -0.004091 -0.003133 0.005047 0.008076 -0.001377 0.003000 -0.001243 -0.004050 -0.007832 -0.006149 0.003658 0.008926 -0.005471 -0.000658 -0.006389 0.001487 -0.010016 0.006324 -0.001139 -0.004570 0.003064 0.001226 -0.005126 -0.004821 0.007092 -0.007834 0.005927 0.007796 0.003643 0.010694 -0.005440 -0.009656
*dt_37 -0.008907 -0.007799 -0.005210 0.009007 -0.010728 -0.005427 0.009147 -0.000271 0.001888 0.001694 -0.006838 0.008567 -0.007962 -0.004612 0.006018 0.008399 0.004319 -0.003438 0.002983 -0.001827 0.006477 0.005849 0.005456 0.002337 -0.008326 0.001508 0.003162 -0.002406 0.004287 -0.002246 0.007306 0.000746 0.007223 0.007548 0.009324 0.007026 0.008758 -0.009480 -0.006936 0.006723 -0.007562 -0.005877 -0.005612 0.004955 -0.002617 -0.007327 0.010485 -0.006847 0.002816 0.008758
*dt_38 -0.009946 -0.008549 -0.006452 0.005903 -0.009346 -0.010874 -0.004316 -0.004891 0.001032 0.008777 0.005790 0.009018 0.003603 0.000052 0.009223 -0.007637 -0.007510 -0.006071 -0.007162 0.008435 -0.005104 -0.010187 -0.009133 -0.008772 0.010378 0.007450 0.001543 -0.001065 0.006086 0.004604 -0.009299 0.004148 0.012303 -0.004471 -0.010206 0.011798 -0.007861 0.005656 -0.006129 -0.001284 -0.008928 0.002828 -0.001144 -0.001877 0.010129 -0.005504 -0.005219 -0.005676 0.009481 -0.005396
*dt_39 -0.006467 -0.002133 0.002649 -0.007208 0.002009 -0.004147 0.006268 -0.007266 -0.002068 0.001938 0.002773 0.003276 0.002670 -0.008765 -0.001403 -0.009513 0.000512 -0.004719 0.006301 -0.005262 0.004128 -0.009382 -0.001975 0.008535 -0.002581 -0.006917 0.000656 0.006774 -0.002110 -0.000851 -0.005466 0.007546 0.006214 -0.004802 0.004956 0.007614 0.003726 -0.004002 0.000261 -0.003569 -0.002005 -0.006405 0.003031 -0.006966 0.001496 -0.006937 -0.001880 -0.008864 -0.006628 0.009340
*dt_40 -0.005323 0.009310 0.000308 -0.001846 -0.008681 -0.006050 0.008410 0.008201 0.000785 0.009711 -0.005923 -0.004237 0.004055 -0.002712 0.003472 0.009991 0.004497 0.009487 0.004368 0.003024 0.007303 0.003586 -0.002317 -0.004360 -0.004975 0.003575 -0.006087 -0.004598 -0.003829 -0.003453 -0.005361 0.004046 0.000828 -0.006025 0.007691 0.001896 -0.005579 -0.002349 0.006019 -0.002436 -0.005408 0.002286 -0.005906 0.007145 0.007977 0.008721 0.007395 0.002761 -0.009546 -0.006181
*dt_41 -0.009662 0.002413 0.002676 0.003716 -0.003877 0.006209 -0.004038 0.000274 0.005642 0.006807 0.002651 -0.007291 0.008886 -0.003954 0.005174 -0.003771 0.001648 0.001853 -0.002414 -0.002920 0.002695 -0.007129 -0.003379 -0.000879 0.008047 -0.008755 -0.000645 -0.005546 -0.002983 0.006922 0.005960 0.008594 -0.004673 0.007757 -0.007107 -0.003350 0.000711 -0.005899 0.006400 -0.007339 0.010804 -0.005910 -0.007722 -0.000331 -0.009121 -0.006972 0.004887 0.011809 -0.008352 -0.003309
*dt_42 0.003094 0.007559 0.009487 -0.006631 -0.009494 0.008712 -0.004948 -0.005372 0.006263 -0.001492 0.000896 0.009596 0.002042 0.007921 -0.001656 -0.003658 0.006726 0.003404 0.004018 -0.001972 -0.008567 0.008459 -0.006958 0.001266 0.010805 -0.007685 0.001586 -0.002014 -0.008959 0.007182 0.007399 0.003792 0.014284 0.002880 -0.000541 -0.003228 0.000015 -0.000369 -0.003378 -0.001883 0.002600 -0.011097 -0.003224 0.000522 -0.002123 0.006869 0.002694 -0.001981 -0.009304 -0.006629
*dt_43 0.000579 -0.001884 0.004106 0.007583 -0.003641 -0.001515 -0.004718 0.005324 -0.002262 0.003190 0.007458 0.009220 -0.000436 -0.005277 0.003938 0.003614 0.008962 0.009765 -0.005198 0.004795 0.011007 0.007102 0.002009 0.000121 -0.004634 -0.000753 0.007114 0.004914 -0.000272 0.010682 0.004198 -0.003474 -0.004986 -0.005513 0.006054 0.012567 -0.006711 0.003347 0.007865 -0.005579 -0.001493 0.004327 -0.008497 -0.006049 -0.003399 0.010852 0.007603 0.007144 -0.001492 -0.010192
*dt_44 -0.009092 -0.001934 0.002564 -0.002631 0.000438 -0.005170 -0.007735 -0.008831 -0.002831 0.007371 0.007940 -0.003186 0.001159 -0.005674 -0.007853 0.003540 -0.005022 -0.001652 -0.007376 0.009928 -0.000251 0.002852 0.009592 0.001686 -0.000584 -0.005761 -0.008337 0.009041 -0.004445 -0.009294 0.003767 0.007943 0.003041 -0.006723 -0.005120 -0.000371 0.004811 0.008159 0.000021 -0.003516 0.002797 0.001843 0.007394 -0.007385 0.005167 0.008535 -0.003833 -0.006767 0.002896 0.006153
*dt_45 -0.004776 0.006220 -0.005423 -0.009995 -0.009999 0.003702 0.006265 0.007636 0.007556 -0.007300 0.008484 -0.006702 0.001445 -0.005049 0.009670 -0.009839 0.001548 -0.006669 -0.007374 -0.008911 -0.000528 -0.006477 -0.002869 0.009979 0.006904 -0.006199 0.003703 -0.002407 -0.004670 -0.008745 -0.006289 0.000644 -0.002502 0.003223 0.000187 0.000559 -0.000997 0.001380 0.005923 0.006651 0.005845 0.004770 0.005659 0.002245 -0.009719 0.009220 0.000830 0.000466 -0.004119 -0.008511
*dt_46 0.005054 0.010091 -0.006096 0.006690 0.003356 -0.000610 0.006556 0.009461 0.004345 0.002285 -0.004382 -0.004698 -0.007224 -0.007344 -0.006859 0.008377 -0.008598 -0.005777 -0.007877 -0.007663 -0.005059 0.000461 -0.004656 0.009157 -0.006755 0.006624 -0.001155 0.006083 0.005403 0.000841 -0.001559 -0.003039 -0.004744 0.004666 -0.010108 0.001049 -0.009107 0.009006 0.004225 0.004839 -0.004251 0.001176 0.002024 0.004823 -0.009818 -0.009564 0.009694 -0.007534 -0.002533 -0.008147
*dt_47 0.002416 0.001990 -0.000002 -0.004767 0.002272 0.002335 -0.001923 -0.011196 -0.010318 0.008921 0.001166 0.008242 0.005947 -0.000774 0.010329 -0.005470 -0.008071 -0.003085 0.001311 0.009823 -0.007552 0.001516 -0.006649 0.002130 0.001751 -0.009738 0.005122 -0.005199 -0.007540 -0.001450 0.001278 0.003131 -0.002609 0.009197 0.000073 -0.002630 0.011001 0.001682 0.003102 0.001786 0.001999 0.004065 0.008734 -0.008836 0.008172 -0.002914 0.002105 0.012739 0.005283 -0.006784
*dt_48 0.006692 0.009565 0.005485 -0.005821 0.007069 -0.003386 -0.000802 -0.001383 -0.007765 0.004328 -0.003021 -0.002049 0.001284 0.008015 -0.000399 -0.002295 0.009323 0.006780 0.009911 -0.001483 -0.001788 -0.009041 0.003795 0.006519 -0.006428 0.003558 -0.001233 -0.000565 0.006478 -0.006885 -0.010111 -0.007868 -0.006459 0.008685 0.001120 0.002921 -0.002549 0.003226 0.004177 0.007086 -0.001348 0.003730 -0.006008 -0.001110 -0.002822 0.004864 -0.001108 0.007087 -0.008624 0.007483
*dt_49 0.001108 -0.002561 0.009637 0.004412 -0.000494 -0.006726 -0.007104 -0.001759 0.003073 -0.007606 -0.009540 0.006580 0.002563 0.003294 0.001213 -0.000884 0.006204 0.003384 0.006711 -0.002049 -0.002347 -0.001501 -0.010612 0.007195 0.008691 0.007399 -0.001020 0.009364 0.000430 -0.006688 0.000348 -0.000088 0.011431 0.005822 -0.003999 0.007388 0.003978 -0.006004 0.000425 0.005003 -0.009197 -0.005360 -0.001373 0.006037 0.010165 0.002747 0.010130 0.011918 0.001604 0.001126
*dt_50 -0.008894 -0.001547 -0.007321 0.006998 -0.008077 -0.007547 0.002186 -0.006899 0.002582 0.000313 0.005317 0.003459 -0.002853 0.005168 0.001110 -0.006382 -0.010138 -0.004031 -0.008765 0.005132 0.003826 0.005840 -0.008265 -0.005621 0.006794 -0.009107 -0.004296 0.009331 -0.005947 0.006381 -0.009290 -0.002582 0.008919 -0.006394 0.005008 0.010116 0.007409 0.008588 -0.006918 0.005360 -0.005695 0.007752 0.003240 0.007447 -0.005542 -0.008943 -0.000688 -0.002719 -0.001863 -0.011218
*dt_51 -0.006349 0.001434 -0.001636 -0.007992 0.002312 -0.004131 0.010216 -0.009355 -0.008207 -0.002808 0.003875 0.010249 0.008685 -0.004578 0.010124 -0.001448 -0.002800 0.006709 0.004699 -0.001743 -0.003449 0.000291 0.001288 0.006038 0.007366 0.001786 -0.007250 0.002399 0.010617 0.008396 -0.001197 -0.007927 0.010167 0.008846 0.005960 0.007852 -0.000103 -0.007474 0.004638 0.002679 0.007021 -0.003324 -0.007465 0.003571 0.008098 -0.003884 0.011331 -0.003140 -0.009411 -0.008539
*dt_52 -0.010250 0.006008 -0.009354 -0.009310 -0.010060 0.003485 0.000082 0.003671 0.004987 -0.003140 0.009892 -0.005448 -0.008968 0.005840 -0.004983 -0.004464 -0.005601 0.003123 0.006542 0.005707 0.005589 -0.010430 -0.009513 0.000062 -0.008953 0.001753 -0.000201 -0.008267 -0.007644 0.010775 -0.004419 -0.002688 0.001299 0.008245 0.003405 0.008117 -0.007700 -0.004045 -0.007486 -0.001334 0.001409 -0.007313 -0.000921 0.008307 0.001824 0.006852 0.007725 0.000262 0.006426 0.008867
*dt_53 0.006440 0.001658 0.008814 -0.000938 -0.002029 -0.006886 -0.006909 0.007850 -0.001091 0.010079 0.001220 -0.007188 -0.000478 -0.003705 -0.001221 -0.005327 0.001837 0.005209 0.005636 -0.004380 0.002030 0.005596 0.006398 -0.006701 -0.003545 0.000075 -0.003033 -0.002433 0.005384 -0.005162 0.006218 0.007181 -0.007062 -0.002141 0.005866 0.009025 0.001824 0.004510 0.000924 0.007912 -0.008728 -0.004029 -0.005651 -0.000823 0.008157 -0.000268 -0.000803 0.008431 0.006752 0.007178
*dt_54 -0.003389 0.004121 0.008108 -0.005556 -0.008733 -0.007586 0.000559 -0.011118 0.004508 -0.003581 0.000668 0.000248 0.004561 0.003166 0.010092 0.007605 -0.007217 0.009259 0.010080 -0.008561 0.000450 0.001892 -0.001934 0.010128 -0.006841 -0.003474 -0.007026 0.005326 -0.002030 0.005061 0.005016 -0.001667 0.012136 -0.003007 -0.001549 0.011372 -0.001866 0.008745 0.003177 0.003183 0.009480 -0.005818 -0.010131 -0.010316 -0.003539 0.003999 -0.000191 0.004437 -0.000397 -0.001628
*dt_55 -0.000969 0.009823 0.009778 0.004099 -0.006251 -0.007767 0.003314 -0.003757 0.002448 0.006201 -0.000560 -0.008369 0.006661 0.000198 0.005453 0.005827 0.002299 0.004125 -0.007781 0.008549 0.008019 0.000069 -0.008950 0.006193 0.001428 0.003348 0.005927 -0.001932 0.003299 0.005804 0.001529 0.003917 0.013385 -0.006536 -0.003296 0.007907 0.002704 0.005758 0.003159 0.005607 -0.005927 -0.008778 -0.001162 0.003771 0.003345 0.005915 0.009884 0.007240 -0.003899 -0.001216
*dt_56 0.002613 -0.006891 -0.006536 -0.007857 -0.003111 -0.008480 -0.007696 -0.000999 0.004810 -0.006499 0.008635 -0.009195 0.002246 -0.005180 0.010674 -0.005286 0.004145 0.009275 -0.007487 0.002915 0.006603 -0.009032 0.002460 0.010397 0.004066 -0.004879 0.007520 0.003169 0.003095 0.004173 -0.007776 -0.008394 0.002456 0.006256 -0.001235 -0.008362 0.001880 -0.001565 0.004120 -0.003075 -0.001526 -0.001189 -0.005732 0.002291 -0.005742 0.004948 0.004718 -0.003118 0.003416 -0.005411
